{
  "architecture": {
    "input_size": 8,
    "hidden_layers": [
      8,
      5
    ],
    "output_size": 2
  },
  "weights": [
    [
      [
        -0.5631535426858799,
        -0.7689009407069612,
        -1.1677081414844181,
        -0.8966621921696466,
        -2.820889525089295,
        2.0045897931822445,
        -0.006273898633250452,
        -2.487285604048347
      ],
      [
        -0.2048218792294803,
        0.9378439480691905,
        2.1261764867632076,
        0.17317354115257455,
        -1.645847842390643,
        2.1370898494588455,
        0.7378016239427792,
        -2.1732072773391757
      ],
      [
        0.0007186573571721366,
        2.575608512939714,
        -0.4407435297101663,
        -1.7669925063537435,
        -2.3912102573432814,
        -2.8106882878067116,
        -0.5351304449768082,
        -0.06031251304992519
      ],
      [
        -2.8072356976843564,
        2.851165907168151,
        2.226671908256808,
        -0.4418770823328647,
        1.2084518847536903,
        -1.9596328413503135,
        -0.41502034745396216,
        1.044993834585707
      ],
      [
        2.0011300543497956,
        0.6443341075086106,
        -0.8011565701536294,
        2.306763245213589,
        -1.9956217270523444,
        2.1,
        2.1,
        -2.136453200349515
      ],
      [
        1.4934050420260085,
        -2.033028712377238,
        0.058855040009953175,
        -0.6413432707126542,
        0.6056772445440803,
        3.0,
        1.3839206713312842,
        0.40478497809308134
      ],
      [
        1.267184893836908,
        2.5533048276057246,
        -2.3230754281826718,
        1.8257972936505344,
        -2.4363972730923957,
        1.7741568574783444,
        -1.4328834852328143,
        -1.2485702362876476
      ],
      [
        -1.0992605068235464,
        0.686626641575527,
        -0.018808152700046765,
        -2.996218181294794,
        1.1086105364536085,
        2.753420602361369,
        0.05218865163149833,
        -0.8206647633563318
      ]
    ],
    [
      [
        0.6857039505521864,
        1.025570101306267,
        1.801344479920702,
        -0.027070151428077782,
        -0.6780379649831306
      ],
      [
        2.518920607232462,
        0.046562694449371334,
        0.9858359307710591,
        -1.1233148125360946,
        0.35390364840035327
      ],
      [
        0.3955459167317657,
        -1.6216253696063048,
        -2.4420334044421614,
        0.18425562997564415,
        1.6058925347176916
      ],
      [
        -0.6683225711024516,
        -1.2586655355393066,
        1.774582115792255,
        -1.8465276180623138,
        0.10635800740256773
      ],
      [
        -1.4154702398208743,
        -0.785216960389181,
        -1.4908605841098592,
        -0.7097438164248804,
        -1.987774149894049
      ],
      [
        -0.11788045137736347,
        0.43931598766819,
        -0.25365541937466196,
        -0.33973400739280524,
        2.1013018843358804
      ],
      [
        -0.9012005202484552,
        -0.5522139611439302,
        -1.9303583943169618,
        -3.0,
        0.605128093186433
      ],
      [
        0.09919992392173957,
        2.671312020637136,
        -0.47117137888214744,
        1.7464542362635802,
        -1.7366800153090018
      ]
    ],
    [
      [
        -2.8910719488774665,
        2.7822679112366626
      ],
      [
        2.1480848040828797,
        -1.7031254286230386
      ],
      [
        -2.951696097522042,
        -1.7496852912064744
      ],
      [
        -1.8001071179125825,
        -1.7890629978791237
      ],
      [
        -0.14627922245294012,
        -1.4999999999999996
      ]
    ]
  ],
  "biases": [
    [
      -1.272105357344042,
      -0.28677425310072735,
      1.2682921654324382,
      1.7279433889538969,
      0.6403574476480507,
      -0.30089739666101756,
      1.5933833843067111,
      0.020293573595055514
    ],
    [
      -2.3135866767944853,
      -2.2161832490726106,
      -1.444084678357243,
      -0.38280273837174367,
      1.4657163410211036
    ],
    [
      -0.5095446628881953,
      2.6278766624399865
    ]
  ],
  "training_info": {
    "algorithm": "PSO",
    "generations": 50,
    "swarm_size": 30,
    "final_fitness": 4791.231958539348
  }
}